{"learner":{"attributes":{"scikit_learn":"{\"_estimator_type\": \"classifier\"}"},"feature_names":[],"feature_types":[],"gradient_booster":{"model":{"gbtree_model_param":{"num_parallel_tree":"1","num_trees":"100"},"iteration_indptr":[0,1,2,3,4,5,6,7,8,9,10,11,12,13,14,15,16,17,18,19,20,21,22,23,24,25,26,27,28,29,30,31,32,33,34,35,36,37,38,39,40,41,42,43,44,45,46,47,48,49,50,51,52,53,54,55,56,57,58,59,60,61,62,63,64,65,66,67,68,69,70,71,72,73,74,75,76,77,78,79,80,81,82,83,84,85,86,87,88,89,90,91,92,93,94,95,96,97,98,99,100],"tree_info":[0,0,0,0,0,0,0,0,0,0,0,0,0,0,0,0,0,0,0,0,0,0,0,0,0,0,0,0,0,0,0,0,0,0,0,0,0,0,0,0,0,0,0,0,0,0,0,0,0,0,0,0,0,0,0,0,0,0,0,0,0,0,0,0,0,0,0,0,0,0,0,0,0,0,0,0,0,0,0,0,0,0,0,0,0,0,0,0,0,0,0,0,0,0,0,0,0,0,0,0],"trees":[{"base_weights":[-1.4008752E-2,-1.0379701E0,1.8524457E0,7.3794365E-1,-1.3918326E0,2.3430831E0,-4.5888636E-1,3.1059045E-1,-4.6869484E-1,2.536088E0,-6.347813E-1,5.223703E-1,-4.1776755E-1,-9.940723E-1,5.8048254E-1,7.923436E-1,-6.502825E-2,-2.9349107E-1,2.28731E-2,-3.782019E-1,2.28731E-2],"categories":[],"categories_nodes":[],"categories_segments":[],"categories_sizes":[],"default_left":[0,0,0,0,0,0,0,0,0,0,0,0,0,0,0,0,0,0,0,0,0],"id":0,"left_children":[1,3,5,-1,7,9,11,13,-1,15,17,-1,-1,19,-1,-1,-1,-1,-1,-1,-1],"loss_changes":[3.1996692E2,1.3722275E2,6.833725E1,0E0,2.9162552E1,2.982425E1,2.5477173E1,2.2751703E1,0E0,1.39635315E1,9.9978364E-1,0E0,0E0,1.8398919E0,0E0,0E0,0E0,0E0,0E0,0E0,0E0],"parents":[2147483647,0,0,1,1,2,2,4,4,5,5,6,6,7,7,9,9,10,10,13,13],"right_children":[2,4,6,-1,8,10,12,14,-1,16,18,-1,-1,20,-1,-1,-1,-1,-1,-1,-1],"split_conditions":[-1.5188885E-1,-1.1307338E-1,-7.231363E-2,7.3794365E-1,-1.4154369E-1,-1.0409774E-1,-1.1447762E-1,-1.0656036E-1,-4.6869484E-1,-1.07545845E-1,-2.4715966E-1,5.223703E-1,-4.1776755E-1,-2.4733776E-1,5.8048254E-1,7.923436E-1,-6.502825E-2,-2.9349107E-1,2.28731E-2,-3.782019E-1,2.28731E-2],"split_indices":[256,14370,11158,0,16226,13814,14153,15390,0,10691,0,0,0,131,0,0,0,0,0,0,0],"split_type":[0,0,0,0,0,0,0,0,0,0,0,0,0,0,0,0,0,0,0,0,0],"sum_hessian":[1.6541267E2,1.0710006E2,5.8312614E1,9.292847E0,9.780721E1,4.8090485E1,1.0222132E1,8.828204E0,8.897901E1,4.5302628E1,2.7878542E0,2.7878542E0,7.4342775E0,5.111066E0,3.7171388E0,4.367638E1,1.6262482E0,1.6262482E0,1.1616058E0,3.94946E0,1.1616058E0],"tree_param":{"num_deleted":"0","num_feature":"16384","num_nodes":"21","size_leaf_vector":"1"}},{"base_weights":[-4.229361E-2,-9.044028E-1,1.2175783E0,7.905551E-1,-1.327275E0,1.5486059E0,-1.148002E0,1.3836776E0,-1.0360398E0,-4.045074E-1,1.5132525E-2,1.7151024E0,-5.849232E-1,-9.2707865E-2,-3.6715364E-1,5.165514E-1,-2.5625333E-1,-8.8361956E-2,-3.451323E-1,5.294013E-1,-9.7511165E-2,-3.0843514E-1,1.3775337E-1,1.2884071E-1,-2.3907553E-1],"categories":[],"categories_nodes":[],"categories_segments":[],"categories_sizes":[],"default_left":[0,0,0,0,0,0,0,0,0,0,0,0,0,0,0,0,0,0,0,0,0,0,0,0,0],"id":1,"left_children":[1,3,5,7,9,11,13,15,17,-1,-1,19,21,-1,-1,-1,23,-1,-1,-1,-1,-1,-1,-1,-1],"loss_changes":[1.6868053E2,6.711813E1,5.1197174E1,2.2052895E1,2.2216797E0,2.0820572E1,1.5129852E-1,8.6460285E0,1.05397224E-1,0E0,0E0,5.8325806E0,2.6858978E0,0E0,0E0,0E0,1.6026881E0,0E0,0E0,0E0,0E0,0E0,0E0,0E0,0E0],"parents":[2147483647,0,0,1,1,2,2,3,3,4,4,5,5,6,6,7,7,8,8,11,11,12,12,16,16],"right_children":[2,4,6,8,10,12,14,16,18,-1,-1,20,22,-1,-1,-1,24,-1,-1,-1,-1,-1,-1,-1,-1],"split_conditions":[-1.6022153E-1,-1.06305234E-1,-1.3268568E-1,-1.3422509E-1,-1.0260606E-1,-9.453198E-2,-1.5262985E-1,-1.5029393E-1,-1.1605653E-1,-4.045074E-1,1.5132525E-2,-7.483571E-2,-2.505211E-1,-9.2707865E-2,-3.6715364E-1,5.165514E-1,-2.673525E-1,-8.8361956E-2,-3.451323E-1,5.294013E-1,-9.7511165E-2,-3.0843514E-1,1.3775337E-1,1.2884071E-1,-2.3907553E-1],"split_indices":[387,16222,14125,13936,1026,13948,1794,14127,1671,0,0,10308,101,0,0,0,1,0,0,0,0,0,0,0,0],"split_type":[0,0,0,0,0,0,0,0,0,0,0,0,0,0,0,0,0,0,0,0,0,0,0,0,0],"sum_hessian":[1.5328789E2,9.1178276E1,6.210961E1,1.8032173E1,7.31461E1,5.4788185E1,7.3214264E0,1.3795162E1,4.2370114E0,7.206462E1,1.0814812E0,5.1004044E1,3.7841396E0,1.0276914E0,6.2937355E0,1.1395432E1,2.3997288E0,1.0441154E0,3.192896E0,4.9926037E1,1.0780063E0,2.667264E0,1.1168756E0,1.1486138E0,1.2511151E0],"tree_param":{"num_deleted":"0","num_feature":"16384","num_nodes":"25","size_leaf_vector":"1"}},{"base_weights":[-5.205245E-2,-8.042098E-1,9.766925E-1,6.5455586E-1,-1.1930759E0,1.2687327E0,-9.770268E-1,1.1364154E0,-8.778355E-1,-1.8429431E-1,-3.679517E-1,1.3832201E0,-5.9632283E-1,-3.3916622E-1,1.0442906E-2,4.1218647E-1,-1.08109996E-1,-7.430966E-2,-2.9557496E-1,1.1689254E-1,-1.9508043E-1,1.435366E0,-1.2054472E-1,-2.3243193E-2,-2.3180029E-1,5.8220286E-2,4.380161E-1],"categories":[],"categories_nodes":[],"categories_segments":[],"categories_sizes":[],"default_left":[0,0,0,0,0,0,0,0,0,0,0,0,0,0,0,0,0,0,0,0,0,0,0,0,0,0,0],"id":2,"left_children":[1,3,5,7,9,11,13,15,17,19,-1,21,23,-1,-1,-1,-1,-1,-1,-1,-1,25,-1,-1,-1,-1,-1],"loss_changes":[1.0242005E2,4.413265E1,3.3149036E1,1.3351077E1,1.820694E0,1.1306488E1,1.256885E0,5.175411E0,6.503868E-2,1.0887392E0,0E0,4.9098053E0,2.6382947E-1,0E0,0E0,0E0,0E0,0E0,0E0,0E0,0E0,1.1093826E0,0E0,0E0,0E0,0E0,0E0],"parents":[2147483647,0,0,1,1,2,2,3,3,4,4,5,5,6,6,7,7,8,8,9,9,11,11,12,12,21,21],"right_children":[2,4,6,8,10,12,14,16,18,20,-1,22,24,-1,-1,-1,-1,-1,-1,-1,-1,26,-1,-1,-1,-1,-1],"split_conditions":[-1.6022153E-1,-8.7922014E-2,-9.40793E-2,-1.3422509E-1,-1.0365819E-1,-1.2694313E-1,-2.589256E-1,-6.863436E-2,-7.155221E-2,-4.985469E-2,-3.679517E-1,-1.0458764E-1,-6.575231E-2,-3.3916622E-1,1.0442906E-2,4.1218647E-1,-1.08109996E-1,-7.430966E-2,-2.9557496E-1,1.1689254E-1,-1.9508043E-1,-1.276962E-1,-1.2054472E-1,-2.3243193E-2,-2.3180029E-1,5.8220286E-2,4.380161E-1],"split_indices":[387,16098,13615,13936,15307,14155,126,6438,1490,1450,0,13883,4684,0,0,0,0,0,0,0,0,12418,0,0,0,0,0],"split_type":[0,0,0,0,0,0,0,0,0,0,0,0,0,0,0,0,0,0,0,0,0,0,0,0,0,0,0],"sum_hessian":[1.303485E2,7.542238E1,5.4926113E1,1.57301445E1,5.969223E1,4.8088497E1,6.837617E0,1.2163686E1,3.566459E0,2.1235802E0,5.756865E1,4.5550694E1,2.5378041E0,5.8349447E0,1.0026721E0,1.0568521E1,1.5951653E0,1.0008829E0,2.565576E0,1.0249586E0,1.0986216E0,4.4448124E1,1.1025662E0,1.0088613E0,1.5289428E0,1.0395619E0,4.3408566E1],"tree_param":{"num_deleted":"0","num_feature":"16384","num_nodes":"27","size_leaf_vector":"1"}},{"base_weights":[-5.740036E-2,-7.2741854E-1,8.488448E-1,5.6437606E-1,-1.1074035E0,1.0791879E0,-8.6527705E-1,9.763334E-1,-2.3879692E-1,4.376129E-2,-3.4448218E-1,1.1895442E0,-2.17497E-1,-3.0080032E-1,-3.2178417E-2,3.7664405E-1,-9.254142E-2,1.254773E0,-1.870594E-1,3.8801602E-1,-2.1353759E-2],"categories":[],"categories_nodes":[],"categories_segments":[],"categories_sizes":[],"default_left":[0,0,0,0,0,0,0,0,0,0,0,0,0,0,0,0,0,0,0,0,0],"id":3,"left_children":[1,3,5,7,9,11,13,15,-1,-1,-1,17,-1,-1,-1,-1,-1,19,-1,-1,-1],"loss_changes":[6.626031E1,3.1398613E1,1.9259861E1,9.134092E0,2.6661339E0,9.097507E0,5.228677E-1,4.6534395E0,0E0,0E0,0E0,5.436775E0,0E0,0E0,0E0,0E0,0E0,2.0540848E0,0E0,0E0,0E0],"parents":[2147483647,0,0,1,1,2,2,3,3,4,4,5,5,6,6,7,7,11,11,17,17],"right_children":[2,4,6,8,10,12,14,16,-1,-1,-1,18,-1,-1,-1,-1,-1,20,-1,-1,-1],"split_conditions":[-1.13082856E-1,-8.7922014E-2,-1.4807232E-1,-1.4938787E-1,-7.237085E-2,-1.0997403E-1,-5.5151917E-2,-1.2365473E-1,-2.3879692E-1,4.376129E-2,-3.4448218E-1,-5.862141E-2,-2.17497E-1,-3.0080032E-1,-3.2178417E-2,3.7664405E-1,-9.254142E-2,-1.1441891E-1,-1.870594E-1,3.8801602E-1,-2.1353759E-2],"split_indices":[386,16098,13640,13857,15247,11185,5856,1814,0,0,0,10837,0,0,0,0,0,14267,0,0,0],"split_type":[0,0,0,0,0,0,0,0,0,0,0,0,0,0,0,0,0,0,0,0,0],"sum_hessian":[1.0710731E2,6.1692936E1,4.5414375E1,1.3912122E1,4.778081E1,4.0361084E1,5.053292E0,1.0895083E1,3.0170388E0,1.427829E0,4.6352985E1,3.835565E1,2.005433E0,4.004688E0,1.0486044E0,8.969192E0,1.9258918E0,3.7320892E1,1.0347574E0,3.6288673E1,1.0322204E0],"tree_param":{"num_deleted":"0","num_feature":"16384","num_nodes":"21","size_leaf_vector":"1"}},{"base_weights":[-6.0723066E-2,-6.8740994E-1,7.4565375E-1,9.1702557E-1,-9.512829E-1,9.738161E-1,-2.8418076E-1,3.2581913E-1,-2.3265978E-2,2.4091618E-1,-1.0256745E0,1.1006156E0,-2.0402968E-1,2.9863555E-2,-1.077646E0,3.5372275E-1,-1.2158765E-1,-3.2956257E-1,-4.5175888E-2],"categories":[],"categories_nodes":[],"categories_segments":[],"categories_sizes":[],"default_left":[0,0,0,0,0,0,0,0,0,0,0,0,0,0,0,0,0,0,0],"id":4,"left_children":[1,3,5,7,9,11,-1,-1,-1,-1,13,15,-1,-1,17,-1,-1,-1,-1],"loss_changes":[4.464526E1,2.1897339E1,1.585931E1,1.3490348E0,6.453537E0,7.9985275E0,0E0,0E0,0E0,0E0,2.553028E0,4.316799E0,0E0,0E0,6.106186E-1,0E0,0E0,0E0,0E0],"parents":[2147483647,0,0,1,1,2,2,3,3,4,4,5,5,10,10,11,11,14,14],"right_children":[2,4,6,8,10,12,-1,-1,-1,-1,14,16,-1,-1,18,-1,-1,-1,-1],"split_conditions":[-1.6022153E-1,-6.955341E-2,-9.0170026E-2,-1.20426424E-1,-1.5429638E-1,-1.0997403E-1,-2.8418076E-1,3.2581913E-1,-2.3265978E-2,2.4091618E-1,-1.0061608E-1,-6.6777356E-2,-2.0402968E-1,2.9863555E-2,5.850158E-1,3.5372275E-1,-1.2158765E-1,-3.2956257E-1,-4.5175888E-2],"split_indices":[387,14713,13765,7323,814,11185,0,0,0,0,11290,13821,0,0,4701,0,0,0,0],"split_type":[0,0,0,0,0,0,0,0,0,0,0,0,0,0,0,0,0,0,0],"sum_hessian":[8.633167E1,4.8661358E1,3.7670315E1,6.523154E0,4.2138203E1,3.3570633E1,4.099683E0,5.4969163E0,1.0262376E0,1.315702E0,4.0822502E1,3.1490881E1,2.07975E0,1.7618511E0,3.906065E1,3.0137691E1,1.3531897E0,3.8018734E1,1.0419155E0],"tree_param":{"num_deleted":"0","num_feature":"16384","num_nodes":"19","size_leaf_vector":"1"}},{"base_weights":[-5.7866197E-2,3.9823586E-1,-3.098508E-1,-2.8039482E-1,8.889763E-1,6.236423E-1,-3.0115908E-1,1.0243353E0,-4.2674166E-1,-1.8457258E-1,3.209091E-1,1.0978215E0,-6.1291922E-2,2.7550353E-2,-2.0594165E-1,2.130477E-1,-2.4614476E-1,3.3737215E-1,6.968817E-2],"categories":[],"categories_nodes":[],"categories_segments":[],"categories_sizes":[],"default_left":[0,0,0,0,0,0,0,0,0,0,0,0,0,0,0,0,0,0,0],"id":5,"left_children":[1,3,-1,5,7,9,-1,11,13,15,-1,17,-1,-1,-1,-1,-1,-1,-1],"loss_changes":[3.157607E1,1.6390663E1,0E0,1.4426628E1,5.4892406E0,3.8012552E0,0E0,2.5731926E0,5.145358E-1,3.0906239E0,0E0,3.107891E-1,0E0,0E0,0E0,0E0,0E0,0E0,0E0],"parents":[2147483647,0,0,1,1,3,3,4,4,5,5,7,7,8,8,9,9,11,11],"right_children":[2,4,-1,6,8,10,-1,12,14,16,-1,18,-1,-1,-1,-1,-1,-1,-1],"split_conditions":[-1.3041036E-1,-1.6077796E-1,-3.098508E-1,-1.06305234E-1,-1.1508204E-1,-1.02528624E-1,-3.0115908E-1,-5.485382E-2,-5.7520557E-2,-1.4925703E-1,3.209091E-1,-9.007105E-2,-6.1291922E-2,2.7550353E-2,-2.0594165E-1,2.130477E-1,-2.4614476E-1,3.3737215E-1,6.968817E-2],"split_indices":[13779,387,0,16222,11230,15526,0,13593,3973,13349,0,11183,0,0,0,0,0,0,0],"split_type":[0,0,0,0,0,0,0,0,0,0,0,0,0,0,0,0,0,0,0],"sum_hessian":[6.908266E1,4.7468086E1,2.1614574E1,2.0100422E1,2.7367662E1,8.996498E0,1.1103925E1,2.5015564E1,2.3520977E0,3.4078896E0,5.5886083E0,2.3704264E1,1.3113004E0,1.0006434E0,1.3514545E0,1.3673104E0,2.0405793E0,2.2703245E1,1.0010192E0],"tree_param":{"num_deleted":"0","num_feature":"16384","num_nodes":"19","size_leaf_vector":"1"}},{"base_weights":[-5.639483E-2,4.013035E-1,-9.1139245E-1,-2.844271E-1,8.081321E-1,-3.0694813E-1,1.3224384E-1,6.134028E-1,-2.837644E-1,9.8136044E-1,-4.589427E-1,2.608951E-1,-1.04407005E-1,1.0477195E0,1.2031974E-2,-2.1532276E-1,2.7181938E-2,3.212139E-1,9.304012E-2],"categories":[],"categories_nodes":[],"categories_segments":[],"categories_sizes":[],"default_left":[0,0,0,0,0,0,0,0,0,0,0,0,0,0,0,0,0,0,0],"id":6,"left_children":[1,3,5,7,9,-1,-1,11,-1,13,15,-1,-1,17,-1,-1,-1,-1,-1],"loss_changes":[2.2250826E1,1.0585323E1,3.4442139E0,9.227998E0,5.6212187E0,0E0,0E0,1.9739194E0,0E0,1.272358E0,5.6490856E-1,0E0,0E0,6.4468384E-4,0E0,0E0,0E0,0E0,0E0],"parents":[2147483647,0,0,1,1,2,2,3,3,4,4,7,7,9,9,10,10,13,13],"right_children":[2,4,6,8,10,-1,-1,12,-1,14,16,-1,-1,18,-1,-1,-1,-1,-1],"split_conditions":[-1.04594536E-1,-2.200755E-1,-2.4589367E-1,-1.0849164E-1,-1.3052918E-1,-3.0694813E-1,1.3224384E-1,-1.0498413E-1,-2.837644E-1,-4.201583E-2,-6.468124E-2,2.608951E-1,-1.04407005E-1,-9.2510276E-2,1.2031974E-2,-2.1532276E-1,2.7181938E-2,3.212139E-1,9.304012E-2],"split_indices":[13744,259,0,16231,13590,0,0,13883,0,2772,9756,0,0,13900,0,0,0,0,0],"split_type":[0,0,0,0,0,0,0,0,0,0,0,0,0,0,0,0,0,0,0],"sum_hessian":[5.4924732E1,3.611972E1,1.8805014E1,1.3561679E1,2.255804E1,1.7594095E1,1.2109176E0,5.7837315E0,7.7779474E0,2.0043308E1,2.5147321E0,4.6419716E0,1.1417598E0,1.8617643E1,1.4256665E0,1.5015492E0,1.013183E0,1.7616812E1,1.000831E0],"tree_param":{"num_deleted":"0","num_feature":"16384","num_nodes":"19","size_leaf_vector":"1"}},{"base_weights":[-5.437321E-2,3.4087083E-1,-2.8486028E-1,-2.2336802E-1,7.7478576E-1,4.723187E-1,-2.5698566E-1,9.309055E-1,-1.1559057E-1,-2.355411E-1,2.7488303E-1,3.0249497E-1,-1.9843116E-2,1.7266396E-1,-2.2292913E-1],"categories":[],"categories_nodes":[],"categories_segments":[],"categories_sizes":[],"default_left":[0,0,0,0,0,0,0,0,0,0,0,0,0,0,0],"id":7,"left_children":[1,3,-1,5,7,9,-1,11,-1,13,-1,-1,-1,-1,-1],"loss_changes":[1.6242565E1,7.9949036E0,0E0,6.864959E0,3.670023E0,2.614366E0,0E0,1.3330612E0,0E0,1.9662427E0,0E0,0E0,0E0,0E0,0E0],"parents":[2147483647,0,0,1,1,3,3,4,4,5,5,7,7,9,9],"right_children":[2,4,-1,6,8,10,-1,12,-1,14,-1,-1,-1,-1,-1],"split_conditions":[-1.3041036E-1,-1.60394E-1,-2.8486028E-1,-1.06305234E-1,-1.1508204E-1,-1.02528624E-1,-2.5698566E-1,-8.4872104E-2,-1.1559057E-1,-1.4925703E-1,2.7488303E-1,3.0249497E-1,-1.9843116E-2,1.7266396E-1,-2.2292913E-1],"split_indices":[13779,387,0,16222,11230,15526,0,13595,0,13349,0,0,0,0,0],"split_type":[0,0,0,0,0,0,0,0,0,0,0,0,0,0,0],"sum_hessian":[4.3993156E1,3.094784E1,1.3045317E1,1.3664503E1,1.7283337E1,6.6323586E0,7.032145E0,1.5407425E1,1.8759114E0,2.7373302E0,3.8950284E0,1.4286889E1,1.1205359E0,1.0020584E0,1.7352718E0],"tree_param":{"num_deleted":"0","num_feature":"16384","num_nodes":"15","size_leaf_vector":"1"}},{"base_weights":[-5.1974196E-2,3.7348846E-1,-8.0515003E-1,-2.0515627E-1,7.641068E-1,-2.864649E-1,1.5756132E-1,2.0007585E-1,-6.467789E-1,9.031891E-1,-1.4626764E-1,1.04262084E-1,-2.574159E-1,2.9943097E-1,-3.1727858E-2],"categories":[],"categories_nodes":[],"categories_segments":[],"categories_sizes":[],"default_left":[0,0,0,0,0,0,0,0,0,0,0,0,0,0,0],"id":8,"left_children":[1,3,5,7,9,-1,-1,-1,11,13,-1,-1,-1,-1,-1],"loss_changes":[1.1949949E1,5.5619E0,3.178629E0,4.4465394E0,2.96247E0,0E0,0E0,0E0,1.8587434E0,1.3877897E0,0E0,0E0,0E0,0E0,0E0],"parents":[2147483647,0,0,1,1,2,2,3,3,4,4,8,8,9,9],"right_children":[2,4,6,8,10,-1,-1,-1,12,14,-1,-1,-1,-1,-1],"split_conditions":[-1.0462484E-1,-1.6120647E-1,-2.6760325E-1,-1.3035513E-1,-1.408152E-1,-2.864649E-1,1.5756132E-1,2.0007585E-1,-7.1461305E-2,-8.72615E-2,-1.4626764E-1,1.04262084E-1,-2.574159E-1,2.9943097E-1,-3.1727858E-2],"split_indices":[13744,387,46,14365,13895,0,0,0,448,11902,0,0,0,0,0],"split_type":[0,0,0,0,0,0,0,0,0,0,0,0,0,0,0],"sum_hessian":[3.5352947E1,2.2913448E1,1.2439498E1,9.42559E0,1.3487859E1,1.1434738E1,1.004759E0,2.9970782E0,6.428511E0,1.2389568E1,1.0982912E0,1.0135354E0,5.414976E0,1.1334093E1,1.0554745E0],"tree_param":{"num_deleted":"0","num_feature":"16384","num_nodes":"15","size_leaf_vector":"1"}},{"base_weights":[-4.647154E-2,2.9808286E-1,-2.6737663E-1,4.9515992E-1,-1.9803047E-1,-3.5448092E-1,7.0909995E-1,1.0897687E-1,-2.1805836E-1,8.194015E-1,-9.572689E-2,8.481725E-3,9.3942606E-1,2.9259214E-1,8.192792E-2],"categories":[],"categories_nodes":[],"categories_segments":[],"categories_sizes":[],"default_left":[0,0,0,0,0,0,0,0,0,0,0,0,0,0,0],"id":9,"left_children":[1,3,-1,5,-1,7,9,-1,-1,11,-1,-1,13,-1,-1],"loss_changes":[8.850775E0,4.4244676E0,0E0,3.626688E0,0E0,1.4405308E0,1.9815769E0,0E0,0E0,1.3007145E0,0E0,0E0,2.3079872E-2,0E0,0E0],"parents":[2147483647,0,0,1,1,3,3,5,5,6,6,9,9,12,12],"right_children":[2,4,-1,6,-1,8,10,-1,-1,12,-1,-1,14,-1,-1],"split_conditions":[-1.3038509E-1,-1.3505016E-1,-2.6737663E-1,-6.578645E-2,-1.9803047E-1,-1.4031811E-1,-1.4432783E-1,1.0897687E-1,-2.1805836E-1,-2.4739285E-1,-9.572689E-2,8.481725E-3,-9.3566634E-2,2.9259214E-1,8.192792E-2],"split_indices":[13779,14128,0,15489,0,15229,13591,0,0,131,0,0,11653,0,0],"split_type":[0,0,0,0,0,0,0,0,0,0,0,0,0,0,0],"sum_hessian":[2.8494585E1,2.0699297E1,7.7952876E0,1.7568983E1,3.130315E0,3.4018738E0,1.4167109E1,1.1704378E0,2.231436E0,1.2977933E1,1.1891757E0,1.872316E0,1.1105617E1,1.0098154E1,1.0074632E0],"tree_param":{"num_deleted":"0","num_feature":"16384","num_nodes":"15","size_leaf_vector":"1"}},{"base_weights":[-4.9388207E-2,3.1368515E-1,-7.7011657E-1,5.056126E-1,-1.7274521E-1,-2.6408654E-1,8.382991E-3,-1.2963569E-1,6.8229604E-1,7.7906924E-1,-4.0018175E-2,8.5329324E-1,1.2784145E-3,6.643049E-2,2.7734995E-1],"categories":[],"categories_nodes":[],"categories_segments":[],"categories_sizes":[],"default_left":[0,0,0,0,0,0,0,0,0,0,0,0,0,0,0],"id":10,"left_children":[1,3,5,7,-1,-1,-1,-1,9,11,-1,13,-1,-1,-1],"loss_changes":[6.6699967E0,3.2014234E0,7.736306E-1,2.7061844E0,0E0,0E0,0E0,0E0,1.1012449E0,6.543064E-1,0E0,2.6480103E-1,0E0,0E0,0E0],"parents":[2147483647,0,0,1,1,2,2,3,3,8,8,9,9,11,11],"right_children":[2,4,6,8,-1,-1,-1,-1,10,12,-1,14,-1,-1,-1],"split_conditions":[-1.252367E-1,-1.14348195E-1,-1.4790575E-1,-1.19121544E-1,-1.7274521E-1,-2.6408654E-1,8.382991E-3,-1.2963569E-1,-5.5127755E-2,-7.962108E-2,-4.0018175E-2,-2.4739183E-1,1.2784145E-3,6.643049E-2,2.7734995E-1],"split_indices":[13605,14153,268,12032,0,0,0,0,10967,3269,0,131,0,0,0],"split_type":[0,0,0,0,0,0,0,0,0,0,0,0,0,0,0],"sum_hessian":[2.3566227E1,1.6047115E1,7.519111E0,1.3554127E1,2.492988E0,6.516478E0,1.0026333E0,1.9197104E0,1.1634417E1,1.0440638E1,1.1937792E0,9.435456E0,1.0051817E0,1.3718607E0,8.063595E0],"tree_param":{"num_deleted":"0","num_feature":"16384","num_nodes":"15","size_leaf_vector":"1"}},{"base_weights":[-5.1384035E-2,2.4642389E-1,-2.4360295E-1,-1.7069168E-1,6.512491E-1,5.677901E-1,-6.1272746E-1,-7.9062134E-2,2.532487E-1,2.0015036E-1,4.4509713E-2,5.7170603E-2,-2.4552345E-1],"categories":[],"categories_nodes":[],"categories_segments":[],"categories_sizes":[],"default_left":[0,0,0,0,0,0,0,0,0,0,0,0,0],"id":11,"left_children":[1,3,-1,5,7,9,11,-1,-1,-1,-1,-1,-1],"loss_changes":[4.951973E0,2.7863016E0,0E0,3.1536489E0,1.6779196E0,5.6795835E-2,1.1238036E0,0E0,0E0,0E0,0E0,0E0,0E0],"parents":[2147483647,0,0,1,1,3,3,4,4,5,5,6,6],"right_children":[2,4,-1,6,8,10,12,-1,-1,-1,-1,-1,-1],"split_conditions":[-1.0611759E-1,-1.4552213E-1,-2.4360295E-1,-1.2712681E-1,-1.14961155E-1,-8.6952336E-2,-9.525209E-2,-7.9062134E-2,2.532487E-1,2.0015036E-1,4.4509713E-2,5.7170603E-2,-2.4552345E-1],"split_indices":[13763,604,0,14563,15174,15012,1229,0,0,0,0,0,0],"split_type":[0,0,0,0,0,0,0,0,0,0,0,0,0],"sum_hessian":[1.9977694E1,1.4842451E1,5.1352425E0,7.5951114E0,7.2473392E0,2.7374067E0,4.8577046E0,1.198408E0,6.048931E0,1.7355202E0,1.0018866E0,1.0052402E0,3.8524644E0],"tree_param":{"num_deleted":"0","num_feature":"16384","num_nodes":"13","size_leaf_vector":"1"}},{"base_weights":[-4.5823496E-2,2.3085758E-1,-2.3446257E-1,2.2619845E-1,-3.7257418E-2,-4.857152E-1,2.1478E-1,1.24450006E-1,-7.121606E-1,-3.3536296E-2,-2.4440336E-1],"categories":[],"categories_nodes":[],"categories_segments":[],"categories_sizes":[],"default_left":[0,0,0,0,0,0,0,0,0,0,0],"id":12,"left_children":[1,3,-1,-1,5,7,-1,-1,9,-1,-1],"loss_changes":[3.7860947E0,1.9418435E0,0E0,0E0,3.7166348E0,1.6917748E0,0E0,0E0,2.6834893E-1,0E0,0E0],"parents":[2147483647,0,0,1,1,4,4,5,5,8,8],"right_children":[2,4,-1,-1,6,8,-1,-1,10,-1,-1],"split_conditions":[-1.3038509E-1,-5.799868E-2,-2.3446257E-1,2.2619845E-1,-2.827193E-1,-5.5234574E-2,2.1478E-1,1.24450006E-1,-1.4919282E-1,-3.3536296E-2,-2.4440336E-1],"split_indices":[13779,13861,0,0,80,449,0,0,14124,0,0],"split_type":[0,0,0,0,0,0,0,0,0,0,0],"sum_hessian":[1.6713112E1,1.2644223E1,4.0688887E0,3.6704173E0,8.973805E0,5.847353E0,3.126453E0,1.007741E0,4.8396115E0,1.0107534E0,3.8288584E0],"tree_param":{"num_deleted":"0","num_feature":"16384","num_nodes":"11","size_leaf_vector":"1"}},{"base_weights":[-3.8391594E-2,2.102867E-1,-2.2903208E-1,-3.3537543E-1,4.3440175E-1,7.3300466E-2,-1.9625117E-1,5.955944E-1,-1.16721235E-1,2.2876237E-1,-3.8796805E-2],"categories":[],"categories_nodes":[],"categories_segments":[],"categories_sizes":[],"default_left":[0,0,0,0,0,0,0,0,0,0,0],"id":13,"left_children":[1,3,-1,5,7,-1,-1,9,-1,-1,-1],"loss_changes":[2.85549E0,1.6026068E0,0E0,9.0514475E-1,1.4105288E0,0E0,0E0,1.0452538E0,0E0,0E0,0E0],"parents":[2147483647,0,0,1,1,3,3,4,4,7,7],"right_children":[2,4,-1,6,8,-1,-1,10,-1,-1,-1],"split_conditions":[-8.961783E-2,-1.13410726E-1,-2.2903208E-1,-8.9827724E-2,-7.363768E-2,7.3300466E-2,-1.9625117E-1,-1.3248418E-1,-1.16721235E-1,2.2876237E-1,-3.8796805E-2],"split_indices":[13778,5248,0,13778,13592,0,0,8367,0,0,0],"split_type":[0,0,0,0,0,0,0,0,0,0,0],"sum_hessian":[1.3946705E1,1.0913533E1,3.0331714E0,3.0328603E0,7.880673E0,1.1589481E0,1.8739122E0,6.82201E0,1.0586627E0,5.502821E0,1.3191893E0],"tree_param":{"num_deleted":"0","num_feature":"16384","num_nodes":"11","size_leaf_vector":"1"}},{"base_weights":[-5.2311983E-2,3.0399072E-1,-5.1138276E-1,5.55752E-1,-2.6606998E-1,-2.4260235E-1,1.4891595E-1,2.3366381E-1,-2.74275E-4,-1.619819E-1,4.670583E-2],"categories":[],"categories_nodes":[],"categories_segments":[],"categories_sizes":[],"default_left":[0,0,0,0,0,0,0,0,0,0,0],"id":14,"left_children":[1,3,5,7,9,-1,-1,-1,-1,-1,-1],"loss_changes":[2.2880006E0,1.2913759E0,2.2200053E0,7.2739244E-1,4.4410408E-1,0E0,0E0,0E0,0E0,0E0,0E0],"parents":[2147483647,0,0,1,1,2,2,3,3,4,4],"right_children":[2,4,6,8,10,-1,-1,-1,-1,-1,-1],"split_conditions":[-6.837806E-2,-1.24868706E-1,-2.676424E-1,-8.716139E-2,-4.272674E-2,-2.4260235E-1,1.4891595E-1,2.3366381E-1,-2.74275E-4,-1.619819E-1,4.670583E-2],"split_indices":[13769,16349,113,11815,8521,0,0,0,0,0,0],"split_type":[0,0,0,0,0,0,0,0,0,0,0],"sum_hessian":[1.2037655E1,6.967623E0,5.0700316E0,4.850536E0,2.1170874E0,4.067639E0,1.0023928E0,3.177657E0,1.6728792E0,1.1136891E0,1.0033982E0],"tree_param":{"num_deleted":"0","num_feature":"16384","num_nodes":"11","size_leaf_vector":"1"}},{"base_weights":[-4.325147E-2,-2.548938E-1,1.9573872E-1,4.4588897E-1,-6.869305E-1,1.9788313E-1,-3.1717423E-2,-3.4668792E-2,-2.4117142E-1],"categories":[],"categories_nodes":[],"categories_segments":[],"categories_sizes":[],"default_left":[0,0,0,0,0,0,0,0,0],"id":15,"left_children":[1,3,-1,5,7,-1,-1,-1,-1],"loss_changes":[1.8305659E0,3.1478868E0,0E0,5.63214E-1,3.2145476E-1,0E0,0E0,0E0,0E0],"parents":[2147483647,0,0,1,1,3,3,4,4],"right_children":[2,4,-1,6,8,-1,-1,-1,-1],"split_conditions":[-2.4901386E-1,-1.5142311E-1,1.9573872E-1,-1.3153884E-1,-9.572333E-2,1.9788313E-1,-3.1717423E-2,-3.4668792E-2,-2.4117142E-1],"split_indices":[22,14012,0,15065,16099,0,0,0,0],"split_type":[0,0,0,0,0,0,0,0,0],"sum_hessian":[1.0302831E1,8.385507E0,1.9173235E0,3.185851E0,5.199656E0,2.1550853E0,1.0307658E0,1.2214315E0,3.9782245E0],"tree_param":{"num_deleted":"0","num_feature":"16384","num_nodes":"9","size_leaf_vector":"1"}},{"base_weights":[-2.982007E-2,2.3054436E-1,-1.6493893E-1,-7.3224835E-2,4.4289443E-1,1.8664177E-1,-3.7265774E-2],"categories":[],"categories_nodes":[],"categories_segments":[],"categories_sizes":[],"default_left":[0,0,0,0,0,0,0],"id":16,"left_children":[1,3,-1,-1,5,-1,-1],"loss_changes":[1.4561527E0,8.385831E-1,0E0,0E0,6.2241316E-1,0E0,0E0],"parents":[2147483647,0,0,1,1,4,4],"right_children":[2,4,-1,-1,6,-1,-1],"split_conditions":[-1.0462484E-1,-1.13410726E-1,-1.6493893E-1,-7.3224835E-2,-7.723322E-2,1.8664177E-1,-3.7265774E-2],"split_indices":[13744,5248,0,0,13723,0,0],"split_type":[0,0,0,0,0,0,0],"sum_hessian":[8.819526E0,6.247753E0,2.571772E0,1.8850381E0,4.3627152E0,3.241244E0,1.121471E0],"tree_param":{"num_deleted":"0","num_feature":"16384","num_nodes":"7","size_leaf_vector":"1"}},{"base_weights":[-3.0878106E-2,-2.5170732E-1,1.6745496E-1,3.312382E-1,-6.4456683E-1,1.6089016E-1,-2.8240468E-2,-5.2954707E-2,-2.1738876E-1],"categories":[],"categories_nodes":[],"categories_segments":[],"categories_sizes":[],"default_left":[0,0,0,0,0,0,0,0,0],"id":17,"left_children":[1,3,-1,5,7,-1,-1,-1,-1],"loss_changes":[1.3215568E0,1.8836994E0,0E0,3.642161E-1,4.807508E-2,0E0,0E0,0E0,0E0],"parents":[2147483647,0,0,1,1,3,3,4,4],"right_children":[2,4,-1,6,8,-1,-1,-1,-1],"split_conditions":[-2.463932E-1,-1.2826659E-1,1.6745496E-1,-1.544709E-1,-4.6741784E-2,1.6089016E-1,-2.8240468E-2,-5.2954707E-2,-2.1738876E-1],"split_indices":[0,14864,0,13886,16241,0,0,0,0],"split_type":[0,0,0,0,0,0,0,0,0],"sum_hessian":[8.079339E0,6.292925E0,1.7864143E0,2.5966835E0,3.6962414E0,1.576104E0,1.0205795E0,1.0080171E0,2.6882243E0],"tree_param":{"num_deleted":"0","num_feature":"16384","num_nodes":"9","size_leaf_vector":"1"}},{"base_weights":[-2.3202995E-2,-2.1111363E-1,1.6980636E-1,3.5926133E-1,-5.8297896E-1,1.5739529E-1,-3.503252E-3,-3.0651586E-2,-2.1344735E-1],"categories":[],"categories_nodes":[],"categories_segments":[],"categories_sizes":[],"default_left":[0,0,0,0,0,0,0,0,0],"id":18,"left_children":[1,3,-1,5,7,-1,-1,-1,-1],"loss_changes":[1.0207727E0,1.6729779E0,0E0,2.111519E-1,2.0895493E-1,0E0,0E0,0E0,0E0],"parents":[2147483647,0,0,1,1,3,3,4,4],"right_children":[2,4,-1,6,8,-1,-1,-1,-1],"split_conditions":[-2.4300972E-1,-1.3304985E-1,1.6980636E-1,-9.539223E-2,-1.15003526E-1,1.5739529E-1,-3.503252E-3,-3.0651586E-2,-2.1344735E-1],"split_indices":[181,13887,0,15013,16266,0,0,0,0],"split_type":[0,0,0,0,0,0,0,0,0],"sum_hessian":[7.140043E0,5.9001303E0,1.2399127E0,2.3419268E0,3.5582035E0,1.3331374E0,1.0087894E0,1.1290578E0,2.4291456E0],"tree_param":{"num_deleted":"0","num_feature":"16384","num_nodes":"9","size_leaf_vector":"1"}},{"base_weights":[-9.938352E-3,-1.8920046E-1,1.5362978E-1,1.2904564E-1,-4.5713952E-1,1.3830153E-2,-2.0442046E-1],"categories":[],"categories_nodes":[],"categories_segments":[],"categories_sizes":[],"default_left":[0,0,0,0,0,0,0],"id":19,"left_children":[1,3,-1,-1,5,-1,-1],"loss_changes":[7.82512E-1,1.2228558E0,0E0,0E0,5.732807E-1,0E0,0E0],"parents":[2147483647,0,0,1,1,4,4],"right_children":[2,4,-1,-1,6,-1,-1],"split_conditions":[-2.553469E-1,-9.262065E-2,1.5362978E-1,1.2904564E-1,-1.658837E-1,1.3830153E-2,-2.0442046E-1],"split_indices":[242,14704,0,0,16337,0,0],"split_type":[0,0,0,0,0,0,0],"sum_hessian":[6.326471E0,5.183936E0,1.1425349E0,1.3825961E0,3.8013399E0,1.4167074E0,2.3846326E0],"tree_param":{"num_deleted":"0","num_feature":"16384","num_nodes":"7","size_leaf_vector":"1"}},{"base_weights":[2.550778E-3,2.0654023E-1,-1.2768757E-1,-6.368285E-2,3.8945436E-1,1.6331166E-1,-9.719366E-3],"categories":[],"categories_nodes":[],"categories_segments":[],"categories_sizes":[],"default_left":[0,0,0,0,0,0,0],"id":20,"left_children":[1,3,-1,-1,5,-1,-1],"loss_changes":[6.688874E-1,4.7938812E-1,0E0,0E0,2.7624637E-1,0E0,0E0],"parents":[2147483647,0,0,1,1,4,4],"right_children":[2,4,-1,-1,6,-1,-1],"split_conditions":[-7.720996E-2,-1.13410726E-1,-1.2768757E-1,-6.368285E-2,-1.5893264E-1,1.6331166E-1,-9.719366E-3],"split_indices":[13723,5248,0,0,2037,0,0],"split_type":[0,0,0,0,0,0,0],"sum_hessian":[5.6516614E0,4.1785603E0,1.4731009E0,1.2214035E0,2.9571567E0,1.9504535E0,1.0067033E0],"tree_param":{"num_deleted":"0","num_feature":"16384","num_nodes":"7","size_leaf_vector":"1"}},{"base_weights":[-2.5401555E-3,1.9611022E-1,-1.2557048E-1,-6.116755E-2,3.6891544E-1,1.5223318E-1,-1.7983277E-3],"categories":[],"categories_nodes":[],"categories_segments":[],"categories_sizes":[],"default_left":[0,0,0,0,0,0,0],"id":21,"left_children":[1,3,-1,-1,5,-1,-1],"loss_changes":[6.016656E-1,4.1641468E-1,0E0,0E0,2.0054954E-1,0E0,0E0],"parents":[2147483647,0,0,1,1,4,4],"right_children":[2,4,-1,-1,6,-1,-1],"split_conditions":[-1.2880471E-1,-6.578645E-2,-1.2557048E-1,-6.116755E-2,-8.945885E-2,1.5223318E-1,-1.7983277E-3],"split_indices":[11379,15489,0,0,11037,0,0],"split_type":[0,0,0,0,0,0,0],"sum_hessian":[5.2869573E0,3.9361076E0,1.3508497E0,1.1331794E0,2.8029282E0,1.7885525E0,1.0143757E0],"tree_param":{"num_deleted":"0","num_feature":"16384","num_nodes":"7","size_leaf_vector":"1"}},{"base_weights":[-6.828991E-3,2.3387715E-1,-1.0489284E-1,4.0359092E-1,-4.279091E-2,1.4758642E-1,3.335085E-2],"categories":[],"categories_nodes":[],"categories_segments":[],"categories_sizes":[],"default_left":[0,0,0,0,0,0,0],"id":22,"left_children":[1,3,-1,5,-1,-1,-1],"loss_changes":[5.745646E-1,3.2004583E-1,0E0,2.521944E-2,0E0,0E0,0E0],"parents":[2147483647,0,0,1,1,3,3],"right_children":[2,4,-1,6,-1,-1,-1],"split_conditions":[-6.8380654E-2,-7.884618E-2,-1.0489284E-1,-1.6384704E-1,-4.279091E-2,1.4758642E-1,3.335085E-2],"split_indices":[13769,13870,0,15319,0,0,0],"split_type":[0,0,0,0,0,0,0],"sum_hessian":[4.9719677E0,3.1076844E0,1.8642834E0,2.0925498E0,1.0151347E0,1.0829545E0,1.0095952E0],"tree_param":{"num_deleted":"0","num_feature":"16384","num_nodes":"7","size_leaf_vector":"1"}},{"base_weights":[1.6857063E-3,-1.9748628E-1,1.1537529E-1,1.01661876E-1,-4.5378336E-1,-2.7712803E-2,-1.744073E-1],"categories":[],"categories_nodes":[],"categories_segments":[],"categories_sizes":[],"default_left":[0,0,0,0,0,0,0],"id":23,"left_children":[1,3,-1,-1,5,-1,-1],"loss_changes":[5.129145E-1,7.6273525E-1,0E0,0E0,1.0421169E-1,0E0,0E0],"parents":[2147483647,0,0,1,1,4,4],"right_children":[2,4,-1,-1,6,-1,-1],"split_conditions":[-2.685962E-1,-9.262065E-2,1.1537529E-1,1.01661876E-1,-1.1798088E-1,-2.7712803E-2,-1.744073E-1],"split_indices":[122,14704,0,0,14101,0,0],"split_type":[0,0,0,0,0,0,0],"sum_hessian":[4.729728E0,3.4298565E0,1.2998718E0,1.004832E0,2.4250245E0,1.082497E0,1.3425276E0],"tree_param":{"num_deleted":"0","num_feature":"16384","num_nodes":"7","size_leaf_vector":"1"}},{"base_weights":[2.0921577E-3,-1.7217132E-1,1.1063747E-1,1.49695E-1,-1.6423161E-1,1.1295747E-1,-4.5508273E-2],"categories":[],"categories_nodes":[],"categories_segments":[],"categories_sizes":[],"default_left":[0,0,0,0,0,0,0],"id":24,"left_children":[1,3,-1,5,-1,-1,-1],"loss_changes":[4.063205E-1,6.035459E-1,0E0,2.697184E-1,0E0,0E0,0E0],"parents":[2147483647,0,0,1,1,3,3],"right_children":[2,4,-1,6,-1,-1,-1],"split_conditions":[-2.4653296E-1,-8.748813E-2,1.1063747E-1,-7.885098E-2,-1.6423161E-1,1.1295747E-1,-4.5508273E-2],"split_indices":[0,14047,0,13870,0,0,0],"split_type":[0,0,0,0,0,0,0],"sum_hessian":[4.364832E0,3.3183594E0,1.0464724E0,2.1098454E0,1.208514E0,1.0615841E0,1.0482614E0],"tree_param":{"num_deleted":"0","num_feature":"16384","num_nodes":"7","size_leaf_vector":"1"}},{"base_weights":[3.010663E-3,1.7917435E-1,-1.03516065E-1,-4.3393012E-2,1.01116925E-1],"categories":[],"categories_nodes":[],"categories_segments":[],"categories_sizes":[],"default_left":[0,0,0,0,0],"id":25,"left_children":[1,3,-1,-1,-1],"loss_changes":[3.696982E-1,2.528432E-1,0E0,0E0,0E0],"parents":[2147483647,0,0,1,1],"right_children":[2,4,-1,-1,-1],"split_conditions":[-1.3523224E-1,-8.63623E-2,-1.03516065E-1,-4.3393012E-2,1.01116925E-1],"split_indices":[14128,15617,0,0,0],"split_type":[0,0,0,0,0],"sum_hessian":[4.021073E0,2.991984E0,1.029089E0,1.0081369E0,1.983847E0],"tree_param":{"num_deleted":"0","num_feature":"16384","num_nodes":"5","size_leaf_vector":"1"}},{"base_weights":[-7.0676073E-3,-2.219549E-1,8.205578E-2,3.841835E-2,-1.353662E-1],"categories":[],"categories_nodes":[],"categories_segments":[],"categories_sizes":[],"default_left":[0,0,0,0,0],"id":26,"left_children":[1,3,-1,-1,-1],"loss_changes":[3.53779E-1,3.2296818E-1,0E0,0E0,0E0],"parents":[2147483647,0,0,1,1],"right_children":[2,4,-1,-1,-1],"split_conditions":[-1.5513176E-1,-7.5324394E-2,8.205578E-2,3.841835E-2,-1.353662E-1],"split_indices":[937,14871,0,0,0],"split_type":[0,0,0,0,0],"sum_hessian":[3.8606393E0,2.3046138E0,1.5560254E0,1.0868175E0,1.2177963E0],"tree_param":{"num_deleted":"0","num_feature":"16384","num_nodes":"5","size_leaf_vector":"1"}},{"base_weights":[-9.595414E-3,8.068748E-2,-1.9043548E-1,-1.3201581E-1,5.682504E-2],"categories":[],"categories_nodes":[],"categories_segments":[],"categories_sizes":[],"default_left":[0,0,0,0,0],"id":27,"left_children":[1,-1,3,-1,-1],"loss_changes":[2.8731415E-1,0E0,4.0832686E-1,0E0,0E0],"parents":[2147483647,0,0,2,2],"right_children":[2,-1,4,-1,-1],"split_conditions":[-1.3205297E-1,8.068748E-2,-5.693662E-2,-1.3201581E-1,5.682504E-2],"split_indices":[13962,0,15361,0,0],"split_type":[0,0,0,0,0],"sum_hessian":[3.6868732E0,1.2595214E0,2.4273517E0,1.3691444E0,1.0582073E0],"tree_param":{"num_deleted":"0","num_feature":"16384","num_nodes":"5","size_leaf_vector":"1"}},{"base_weights":[-7.0589953E-3,-1.9293602E-1,7.358282E-2,4.2522617E-2,-1.2589186E-1],"categories":[],"categories_nodes":[],"categories_segments":[],"categories_sizes":[],"default_left":[0,0,0,0,0],"id":28,"left_children":[1,3,-1,-1,-1],"loss_changes":[2.5876462E-1,2.989029E-1,0E0,0E0,0E0],"parents":[2147483647,0,0,1,1],"right_children":[2,4,-1,-1,-1],"split_conditions":[-5.9215035E-2,-7.704794E-2,7.358282E-2,4.2522617E-2,-1.2589186E-1],"split_indices":[570,14877,0,0,0],"split_type":[0,0,0,0,0],"sum_hessian":[3.5080426E0,2.15558E0,1.3524626E0,1.0218344E0,1.1337456E0],"tree_param":{"num_deleted":"0","num_feature":"16384","num_nodes":"5","size_leaf_vector":"1"}},{"base_weights":[-8.478665E-3,6.655274E-2,-6.4828925E-2],"categories":[],"categories_nodes":[],"categories_segments":[],"categories_sizes":[],"default_left":[0,0,0],"id":29,"left_children":[1,-1,-1],"loss_changes":[2.564811E-1,0E0,0E0],"parents":[2147483647,0,0],"right_children":[2,-1,-1],"split_conditions":[-1.658837E-1,6.655274E-2,-6.4828925E-2],"split_indices":[16337,0,0],"split_type":[0,0,0],"sum_hessian":[3.3610878E0,1.560941E0,1.8001469E0],"tree_param":{"num_deleted":"0","num_feature":"16384","num_nodes":"3","size_leaf_vector":"1"}},{"base_weights":[-5.639421E-3,1.6630325E-1,-7.9870574E-2,-2.3061095E-2,9.728014E-2],"categories":[],"categories_nodes":[],"categories_segments":[],"categories_sizes":[],"default_left":[0,0,0,0,0],"id":30,"left_children":[1,3,-1,-1,-1],"loss_changes":[2.3675334E-1,1.4798379E-1,0E0,0E0,0E0],"parents":[2147483647,0,0,1,1],"right_children":[2,4,-1,-1,-1],"split_conditions":[-9.099293E-2,-9.676143E-2,-7.9870574E-2,-2.3061095E-2,9.728014E-2],"split_indices":[11457,530,0,0,0],"split_type":[0,0,0,0,0],"sum_hessian":[3.295651E0,2.203562E0,1.0920889E0,1.0698996E0,1.1336626E0],"tree_param":{"num_deleted":"0","num_feature":"16384","num_nodes":"5","size_leaf_vector":"1"}},{"base_weights":[-5.0919675E-3,5.3856846E-2,-7.3262185E-2],"categories":[],"categories_nodes":[],"categories_segments":[],"categories_sizes":[],"default_left":[0,0,0],"id":31,"left_children":[1,-1,-1],"loss_changes":[2.2896895E-1,0E0,0E0],"parents":[2147483647,0,0],"right_children":[2,-1,-1],"split_conditions":[-1.23053E-1,5.3856846E-2,-7.3262185E-2],"split_indices":[13919,0,0],"split_type":[0,0,0],"sum_hessian":[3.1937127E0,1.9428833E0,1.2508295E0],"tree_param":{"num_deleted":"0","num_feature":"16384","num_nodes":"3","size_leaf_vector":"1"}},{"base_weights":[-8.475637E-3,-5.606551E-2,6.7273065E-2],"categories":[],"categories_nodes":[],"categories_segments":[],"categories_sizes":[],"default_left":[0,0,0],"id":32,"left_children":[1,-1,-1],"loss_changes":[2.1352635E-1,0E0,0E0],"parents":[2147483647,0,0],"right_children":[2,-1,-1],"split_conditions":[-1.21306136E-1,-5.606551E-2,6.7273065E-2],"split_indices":[640,0,0],"split_type":[0,0,0],"sum_hessian":[3.133467E0,1.8851815E0,1.2482854E0],"tree_param":{"num_deleted":"0","num_feature":"16384","num_nodes":"3","size_leaf_vector":"1"}},{"base_weights":[-3.2046135E-3,4.8379824E-2,-7.005497E-2],"categories":[],"categories_nodes":[],"categories_segments":[],"categories_sizes":[],"default_left":[0,0,0],"id":33,"left_children":[1,-1,-1],"loss_changes":[1.9204609E-1,0E0,0E0],"parents":[2147483647,0,0],"right_children":[2,-1,-1],"split_conditions":[-6.8380654E-2,4.8379824E-2,-7.005497E-2],"split_indices":[13769,0,0],"split_type":[0,0,0],"sum_hessian":[3.0757542E0,1.9692578E0,1.1064963E0],"tree_param":{"num_deleted":"0","num_feature":"16384","num_nodes":"3","size_leaf_vector":"1"}},{"base_weights":[-7.811223E-3,-5.4061513E-2,6.257607E-2],"categories":[],"categories_nodes":[],"categories_segments":[],"categories_sizes":[],"default_left":[0,0,0],"id":34,"left_children":[1,-1,-1],"loss_changes":[1.877507E-1,0E0,0E0],"parents":[2147483647,0,0],"right_children":[2,-1,-1],"split_conditions":[-5.9205566E-2,-5.4061513E-2,6.257607E-2],"split_indices":[15362,0,0],"split_type":[0,0,0],"sum_hessian":[3.0251844E0,1.7768817E0,1.2483026E0],"tree_param":{"num_deleted":"0","num_feature":"16384","num_nodes":"3","size_leaf_vector":"1"}},{"base_weights":[-3.3571078E-3,5.8775634E-2,-5.5209458E-2],"categories":[],"categories_nodes":[],"categories_segments":[],"categories_sizes":[],"default_left":[0,0,0],"id":35,"left_children":[1,-1,-1],"loss_changes":[1.7923021E-1,0E0,0E0],"parents":[2147483647,0,0],"right_children":[2,-1,-1],"split_conditions":[-1.658837E-1,5.8775634E-2,-5.5209458E-2],"split_indices":[16337,0,0],"split_type":[0,0,0],"sum_hessian":[2.9766357E0,1.3753313E0,1.6013044E0],"tree_param":{"num_deleted":"0","num_feature":"16384","num_nodes":"3","size_leaf_vector":"1"}},{"base_weights":[-1.4592211E-3,-5.1280424E-2,6.1775737E-2],"categories":[],"categories_nodes":[],"categories_segments":[],"categories_sizes":[],"default_left":[0,0,0],"id":36,"left_children":[1,-1,-1],"loss_changes":[1.7333776E-1,0E0,0E0],"parents":[2147483647,0,0],"right_children":[2,-1,-1],"split_conditions":[-2.0033677E-1,-5.1280424E-2,6.1775737E-2],"split_indices":[1057,0,0],"split_type":[0,0,0],"sum_hessian":[2.9304838E0,1.7093164E0,1.2211674E0],"tree_param":{"num_deleted":"0","num_feature":"16384","num_nodes":"3","size_leaf_vector":"1"}},{"base_weights":[1.7243044E-3,6.6437244E-2,-4.802139E-2],"categories":[],"categories_nodes":[],"categories_segments":[],"categories_sizes":[],"default_left":[0,0,0],"id":37,"left_children":[1,-1,-1],"loss_changes":[1.7358856E-1,0E0,0E0],"parents":[2147483647,0,0],"right_children":[2,-1,-1],"split_conditions":[-1.3304985E-1,6.6437244E-2,-4.802139E-2],"split_indices":[13887,0,0],"split_type":[0,0,0],"sum_hessian":[2.8855786E0,1.0673169E0,1.8182619E0],"tree_param":{"num_deleted":"0","num_feature":"16384","num_nodes":"3","size_leaf_vector":"1"}},{"base_weights":[6.1342684E-3,5.1657967E-2,-5.8639262E-2],"categories":[],"categories_nodes":[],"categories_segments":[],"categories_sizes":[],"default_left":[0,0,0],"id":38,"left_children":[1,-1,-1],"loss_changes":[1.6217291E-1,0E0,0E0],"parents":[2147483647,0,0],"right_children":[2,-1,-1],"split_conditions":[-1.1339705E-1,5.1657967E-2,-5.8639262E-2],"split_indices":[10100,0,0],"split_type":[0,0,0],"sum_hessian":[2.838887E0,1.6366336E0,1.2022533E0],"tree_param":{"num_deleted":"0","num_feature":"16384","num_nodes":"3","size_leaf_vector":"1"}},{"base_weights":[2.4659173E-3,-5.1773284E-2,5.4109327E-2],"categories":[],"categories_nodes":[],"categories_segments":[],"categories_sizes":[],"default_left":[0,0,0],"id":39,"left_children":[1,-1,-1],"loss_changes":[1.4933716E-1,0E0,0E0],"parents":[2147483647,0,0],"right_children":[2,-1,-1],"split_conditions":[-8.636199E-2,-5.1773284E-2,5.4109327E-2],"split_indices":[15617,0,0],"split_type":[0,0,0],"sum_hessian":[2.7960937E0,1.4244317E0,1.371662E0],"tree_param":{"num_deleted":"0","num_feature":"16384","num_nodes":"3","size_leaf_vector":"1"}},{"base_weights":[2.3762886E-3,5.52104E-2,-4.8819907E-2],"categories":[],"categories_nodes":[],"categories_segments":[],"categories_sizes":[],"default_left":[0,0,0],"id":40,"left_children":[1,-1,-1],"loss_changes":[1.4267057E-1,0E0,0E0],"parents":[2147483647,0,0],"right_children":[2,-1,-1],"split_conditions":[-1.658837E-1,5.52104E-2,-4.8819907E-2],"split_indices":[16337,0,0],"split_type":[0,0,0],"sum_hessian":[2.7582173E0,1.258716E0,1.4995015E0],"tree_param":{"num_deleted":"0","num_feature":"16384","num_nodes":"3","size_leaf_vector":"1"}},{"base_weights":[3.4311386E-3,5.034407E-2,-5.302396E-2],"categories":[],"categories_nodes":[],"categories_segments":[],"categories_sizes":[],"default_left":[0,0,0],"id":41,"left_children":[1,-1,-1],"loss_changes":[1.3987252E-1,0E0,0E0],"parents":[2147483647,0,0],"right_children":[2,-1,-1],"split_conditions":[-8.906139E-2,5.034407E-2,-5.302396E-2],"split_indices":[11566,0,0],"split_type":[0,0,0],"sum_hessian":[2.7211123E0,1.4588101E0,1.262302E0],"tree_param":{"num_deleted":"0","num_feature":"16384","num_nodes":"3","size_leaf_vector":"1"}},{"base_weights":[1.6870275E-3,-4.592183E-2,5.857791E-2],"categories":[],"categories_nodes":[],"categories_segments":[],"categories_sizes":[],"default_left":[0,0,0],"id":42,"left_children":[1,-1,-1],"loss_changes":[1.4024997E-1,0E0,0E0],"parents":[2147483647,0,0],"right_children":[2,-1,-1],"split_conditions":[-7.4474245E-2,-4.592183E-2,5.857791E-2],"split_indices":[396,0,0],"split_type":[0,0,0],"sum_hessian":[2.6839485E0,1.6077715E0,1.076177E0],"tree_param":{"num_deleted":"0","num_feature":"16384","num_nodes":"3","size_leaf_vector":"1"}},{"base_weights":[4.7302675E-3,5.063687E-2,-5.3009916E-2],"categories":[],"categories_nodes":[],"categories_segments":[],"categories_sizes":[],"default_left":[0,0,0],"id":43,"left_children":[1,-1,-1],"loss_changes":[1.383704E-1,0E0,0E0],"parents":[2147483647,0,0],"right_children":[2,-1,-1],"split_conditions":[-1.15222365E-1,5.063687E-2,-5.3009916E-2],"split_indices":[14856,0,0],"split_type":[0,0,0],"sum_hessian":[2.6467106E0,1.4264787E0,1.2202319E0],"tree_param":{"num_deleted":"0","num_feature":"16384","num_nodes":"3","size_leaf_vector":"1"}},{"base_weights":[2.6772863E-3,-5.13014E-2,4.5994185E-2],"categories":[],"categories_nodes":[],"categories_segments":[],"categories_sizes":[],"default_left":[0,0,0],"id":44,"left_children":[1,-1,-1],"loss_changes":[1.2069412E-1,0E0,0E0],"parents":[2147483647,0,0],"right_children":[2,-1,-1],"split_conditions":[-7.354199E-2,-5.13014E-2,4.5994185E-2],"split_indices":[15235,0,0],"split_type":[0,0,0],"sum_hessian":[2.6110992E0,1.1499779E0,1.4611212E0],"tree_param":{"num_deleted":"0","num_feature":"16384","num_nodes":"3","size_leaf_vector":"1"}},{"base_weights":[3.8371055E-4,4.264028E-2,-5.3062987E-2],"categories":[],"categories_nodes":[],"categories_segments":[],"categories_sizes":[],"default_left":[0,0,0],"id":45,"left_children":[1,-1,-1],"loss_changes":[1.1509121E-1,0E0,0E0],"parents":[2147483647,0,0],"right_children":[2,-1,-1],"split_conditions":[-8.748813E-2,4.264028E-2,-5.3062987E-2],"split_indices":[14047,0,0],"split_type":[0,0,0],"sum_hessian":[2.5798895E0,1.5436405E0,1.0362489E0],"tree_param":{"num_deleted":"0","num_feature":"16384","num_nodes":"3","size_leaf_vector":"1"}},{"base_weights":[-2.715568E-3,-4.4370767E-2,5.3995524E-2],"categories":[],"categories_nodes":[],"categories_segments":[],"categories_sizes":[],"default_left":[0,0,0],"id":46,"left_children":[1,-1,-1],"loss_changes":[1.20762706E-1,0E0,0E0],"parents":[2147483647,0,0],"right_children":[2,-1,-1],"split_conditions":[-1.5513176E-1,-4.4370767E-2,5.3995524E-2],"split_indices":[937,0,0],"split_type":[0,0,0],"sum_hessian":[2.5490963E0,1.5264976E0,1.0225989E0],"tree_param":{"num_deleted":"0","num_feature":"16384","num_nodes":"3","size_leaf_vector":"1"}},{"base_weights":[8.586534E-4,4.2331472E-2,-5.2691255E-2],"categories":[],"categories_nodes":[],"categories_segments":[],"categories_sizes":[],"default_left":[0,0,0],"id":47,"left_children":[1,-1,-1],"loss_changes":[1.1184684E-1,0E0,0E0],"parents":[2147483647,0,0],"right_children":[2,-1,-1],"split_conditions":[-1.4522572E-1,4.2331472E-2,-5.2691255E-2],"split_indices":[2643,0,0],"split_type":[0,0,0],"sum_hessian":[2.5173028E0,1.5144342E0,1.0028685E0],"tree_param":{"num_deleted":"0","num_feature":"16384","num_nodes":"3","size_leaf_vector":"1"}},{"base_weights":[-2.4115546E-3,4.885419E-2,-4.4471238E-2],"categories":[],"categories_nodes":[],"categories_segments":[],"categories_sizes":[],"default_left":[0,0,0],"id":48,"left_children":[1,-1,-1],"loss_changes":[1.08193964E-1,0E0,0E0],"parents":[2147483647,0,0],"right_children":[2,-1,-1],"split_conditions":[-1.658837E-1,4.885419E-2,-4.4471238E-2],"split_indices":[16337,0,0],"split_type":[0,0,0],"sum_hessian":[2.4878552E0,1.1115052E0,1.37635E0],"tree_param":{"num_deleted":"0","num_feature":"16384","num_nodes":"3","size_leaf_vector":"1"}},{"base_weights":[-4.1972726E-4,-4.3880634E-2,5.373763E-2],"categories":[],"categories_nodes":[],"categories_segments":[],"categories_sizes":[],"default_left":[0,0,0],"id":49,"left_children":[1,-1,-1],"loss_changes":[1.1679152E-1,0E0,0E0],"parents":[2147483647,0,0],"right_children":[2,-1,-1],"split_conditions":[-1.8713099E-1,-4.3880634E-2,5.373763E-2],"split_indices":[1024,0,0],"split_type":[0,0,0],"sum_hessian":[2.4594576E0,1.459338E0,1.0001197E0],"tree_param":{"num_deleted":"0","num_feature":"16384","num_nodes":"3","size_leaf_vector":"1"}},{"base_weights":[2.6258978E-3,4.7037963E-2,-4.751304E-2],"categories":[],"categories_nodes":[],"categories_segments":[],"categories_sizes":[],"default_left":[0,0,0],"id":50,"left_children":[1,-1,-1],"loss_changes":[1.099178E-1,0E0,0E0],"parents":[2147483647,0,0],"right_children":[2,-1,-1],"split_conditions":[-1.312226E-1,4.7037963E-2,-4.751304E-2],"split_indices":[8202,0,0],"split_type":[0,0,0],"sum_hessian":[2.4279113E0,1.25364E0,1.1742712E0],"tree_param":{"num_deleted":"0","num_feature":"16384","num_nodes":"3","size_leaf_vector":"1"}},{"base_weights":[1.7131222E-3,4.217773E-2,-4.6355005E-2],"categories":[],"categories_nodes":[],"categories_segments":[],"categories_sizes":[],"default_left":[0,0,0],"id":51,"left_children":[1,-1,-1],"loss_changes":[9.5472366E-2,0E0,0E0],"parents":[2147483647,0,0],"right_children":[2,-1,-1],"split_conditions":[-9.5238544E-2,4.217773E-2,-4.6355005E-2],"split_indices":[11292,0,0],"split_type":[0,0,0],"sum_hessian":[2.3990042E0,1.3230135E0,1.0759907E0],"tree_param":{"num_deleted":"0","num_feature":"16384","num_nodes":"3","size_leaf_vector":"1"}},{"base_weights":[-4.6797635E-5,-4.8147034E-2,4.0853728E-2],"categories":[],"categories_nodes":[],"categories_segments":[],"categories_sizes":[],"default_left":[0,0,0],"id":52,"left_children":[1,-1,-1],"loss_changes":[9.557556E-2,0E0,0E0],"parents":[2147483647,0,0],"right_children":[2,-1,-1],"split_conditions":[-8.1007175E-2,-4.8147034E-2,4.0853728E-2],"split_indices":[12160,0,0],"split_type":[0,0,0],"sum_hessian":[2.3729117E0,1.0078155E0,1.3650963E0],"tree_param":{"num_deleted":"0","num_feature":"16384","num_nodes":"3","size_leaf_vector":"1"}},{"base_weights":[-2.2421665E-3,4.6984557E-2,-4.2756725E-2],"categories":[],"categories_nodes":[],"categories_segments":[],"categories_sizes":[],"default_left":[0,0,0],"id":53,"left_children":[1,-1,-1],"loss_changes":[9.692455E-2,0E0,0E0],"parents":[2147483647,0,0],"right_children":[2,-1,-1],"split_conditions":[-1.658837E-1,4.6984557E-2,-4.2756725E-2],"split_indices":[16337,0,0],"split_type":[0,0,0],"sum_hessian":[2.3477628E0,1.046374E0,1.3013887E0],"tree_param":{"num_deleted":"0","num_feature":"16384","num_nodes":"3","size_leaf_vector":"1"}},{"base_weights":[-2.9528927E-4,-4.17862E-2,4.6842843E-2],"categories":[],"categories_nodes":[],"categories_segments":[],"categories_sizes":[],"default_left":[0,0,0],"id":54,"left_children":[1,-1,-1],"loss_changes":[9.398805E-2,0E0,0E0],"parents":[2147483647,0,0],"right_children":[2,-1,-1],"split_conditions":[-1.2344873E-1,-4.17862E-2,4.6842843E-2],"split_indices":[916,0,0],"split_type":[0,0,0],"sum_hessian":[2.3223188E0,1.2877827E0,1.034536E0],"tree_param":{"num_deleted":"0","num_feature":"16384","num_nodes":"3","size_leaf_vector":"1"}},{"base_weights":[1.3441966E-3,4.7266923E-2,-4.1004434E-2],"categories":[],"categories_nodes":[],"categories_segments":[],"categories_sizes":[],"default_left":[0,0,0],"id":55,"left_children":[1,-1,-1],"loss_changes":[9.2629105E-2,0E0,0E0],"parents":[2147483647,0,0],"right_children":[2,-1,-1],"split_conditions":[-1.5029229E-1,4.7266923E-2,-4.1004434E-2],"split_indices":[14127,0,0],"split_type":[0,0,0],"sum_hessian":[2.2973018E0,1.0112764E0,1.2860254E0],"tree_param":{"num_deleted":"0","num_feature":"16384","num_nodes":"3","size_leaf_vector":"1"}},{"base_weights":[2.8877917E-3,4.010481E-2,-4.382146E-2],"categories":[],"categories_nodes":[],"categories_segments":[],"categories_sizes":[],"default_left":[0,0,0],"id":56,"left_children":[1,-1,-1],"loss_changes":[8.3273746E-2,0E0,0E0],"parents":[2147483647,0,0],"right_children":[2,-1,-1],"split_conditions":[-1.0915052E-1,4.010481E-2,-4.382146E-2],"split_indices":[6286,0,0],"split_type":[0,0,0],"sum_hessian":[2.2718835E0,1.2643057E0,1.0075779E0],"tree_param":{"num_deleted":"0","num_feature":"16384","num_nodes":"3","size_leaf_vector":"1"}},{"base_weights":[8.791587E-4,-3.889095E-2,4.3262657E-2],"categories":[],"categories_nodes":[],"categories_segments":[],"categories_sizes":[],"default_left":[0,0,0],"id":57,"left_children":[1,-1,-1],"loss_changes":[7.948582E-2,0E0,0E0],"parents":[2147483647,0,0],"right_children":[2,-1,-1],"split_conditions":[-1.3473581E-1,-3.889095E-2,4.3262657E-2],"split_indices":[406,0,0],"split_type":[0,0,0],"sum_hessian":[2.2496843E0,1.2274802E0,1.022204E0],"tree_param":{"num_deleted":"0","num_feature":"16384","num_nodes":"3","size_leaf_vector":"1"}},{"base_weights":[1.9879825E-3,4.4336624E-2,-3.9001476E-2],"categories":[],"categories_nodes":[],"categories_segments":[],"categories_sizes":[],"default_left":[0,0,0],"id":58,"left_children":[1,-1,-1],"loss_changes":[8.134174E-2,0E0,0E0],"parents":[2147483647,0,0],"right_children":[2,-1,-1],"split_conditions":[-1.5552461E-1,4.4336624E-2,-3.9001476E-2],"split_indices":[16350,0,0],"split_type":[0,0,0],"sum_hessian":[2.2283478E0,1.0019315E0,1.2264163E0],"tree_param":{"num_deleted":"0","num_feature":"16384","num_nodes":"3","size_leaf_vector":"1"}},{"base_weights":[3.0832568E-3,-3.9444823E-2,4.3034412E-2],"categories":[],"categories_nodes":[],"categories_segments":[],"categories_sizes":[],"default_left":[0,0,0],"id":59,"left_children":[1,-1,-1],"loss_changes":[7.943642E-2,0E0,0E0],"parents":[2147483647,0,0],"right_children":[2,-1,-1],"split_conditions":[-8.51609E-2,-3.9444823E-2,4.3034412E-2],"split_indices":[15236,0,0],"split_type":[0,0,0],"sum_hessian":[2.2070327E0,1.159098E0,1.0479347E0],"tree_param":{"num_deleted":"0","num_feature":"16384","num_nodes":"3","size_leaf_vector":"1"}},{"base_weights":[3.3124457E-3,4.1076083E-2,-4.015728E-2],"categories":[],"categories_nodes":[],"categories_segments":[],"categories_sizes":[],"default_left":[0,0,0],"id":60,"left_children":[1,-1,-1],"loss_changes":[7.672515E-2,0E0,0E0],"parents":[2147483647,0,0],"right_children":[2,-1,-1],"split_conditions":[-1.084371E-1,4.1076083E-2,-4.015728E-2],"split_indices":[14436,0,0],"split_type":[0,0,0],"sum_hessian":[2.186411E0,1.1085097E0,1.0779014E0],"tree_param":{"num_deleted":"0","num_feature":"16384","num_nodes":"3","size_leaf_vector":"1"}},{"base_weights":[2.6286372E-3,3.7565947E-2,-3.9396998E-2],"categories":[],"categories_nodes":[],"categories_segments":[],"categories_sizes":[],"default_left":[0,0,0],"id":61,"left_children":[1,-1,-1],"loss_changes":[6.842499E-2,0E0,0E0],"parents":[2147483647,0,0],"right_children":[2,-1,-1],"split_conditions":[-9.552193E-2,3.7565947E-2,-3.9396998E-2],"split_indices":[11559,0,0],"split_type":[0,0,0],"sum_hessian":[2.1654387E0,1.1647043E0,1.0007344E0],"tree_param":{"num_deleted":"0","num_feature":"16384","num_nodes":"3","size_leaf_vector":"1"}},{"base_weights":[1.2633906E-3,3.677343E-2,-3.7426975E-2],"categories":[],"categories_nodes":[],"categories_segments":[],"categories_sizes":[],"default_left":[0,0,0],"id":62,"left_children":[1,-1,-1],"loss_changes":[6.339819E-2,0E0,0E0],"parents":[2147483647,0,0],"right_children":[2,-1,-1],"split_conditions":[-1.312226E-1,3.677343E-2,-3.7426975E-2],"split_indices":[8202,0,0],"split_type":[0,0,0],"sum_hessian":[2.14662E0,1.1076444E0,1.0389756E0],"tree_param":{"num_deleted":"0","num_feature":"16384","num_nodes":"3","size_leaf_vector":"1"}},{"base_weights":[6.781247E-4,-3.8707707E-2,3.718126E-2],"categories":[],"categories_nodes":[],"categories_segments":[],"categories_sizes":[],"default_left":[0,0,0],"id":63,"left_children":[1,-1,-1],"loss_changes":[6.6026114E-2,0E0,0E0],"parents":[2147483647,0,0],"right_children":[2,-1,-1],"split_conditions":[-9.6992016E-2,-3.8707707E-2,3.718126E-2],"split_indices":[12672,0,0],"split_type":[0,0,0],"sum_hessian":[2.1296875E0,1.0149212E0,1.1147664E0],"tree_param":{"num_deleted":"0","num_feature":"16384","num_nodes":"3","size_leaf_vector":"1"}},{"base_weights":[-1.8297147E-5,3.795359E-2,-3.6099214E-2],"categories":[],"categories_nodes":[],"categories_segments":[],"categories_sizes":[],"default_left":[0,0,0],"id":64,"left_children":[1,-1,-1],"loss_changes":[6.26006E-2,0E0,0E0],"parents":[2147483647,0,0],"right_children":[2,-1,-1],"split_conditions":[-1.0977017E-1,3.795359E-2,-3.6099214E-2],"split_indices":[14072,0,0],"split_type":[0,0,0],"sum_hessian":[2.1121871E0,1.0043758E0,1.1078113E0],"tree_param":{"num_deleted":"0","num_feature":"16384","num_nodes":"3","size_leaf_vector":"1"}},{"base_weights":[5.90836E-4,-3.666297E-2,3.8407207E-2],"categories":[],"categories_nodes":[],"categories_segments":[],"categories_sizes":[],"default_left":[0,0,0],"id":65,"left_children":[1,-1,-1],"loss_changes":[6.407788E-2,0E0,0E0],"parents":[2147483647,0,0],"right_children":[2,-1,-1],"split_conditions":[-1.1614194E-1,-3.666297E-2,3.8407207E-2],"split_indices":[549,0,0],"split_type":[0,0,0],"sum_hessian":[2.0949214E0,1.0877254E0,1.007196E0],"tree_param":{"num_deleted":"0","num_feature":"16384","num_nodes":"3","size_leaf_vector":"1"}},{"base_weights":[9.86744E-4,3.5454184E-2,-3.582983E-2],"categories":[],"categories_nodes":[],"categories_segments":[],"categories_sizes":[],"default_left":[0,0,0],"id":66,"left_children":[1,-1,-1],"loss_changes":[5.754874E-2,0E0,0E0],"parents":[2147483647,0,0],"right_children":[2,-1,-1],"split_conditions":[-1.2622558E-1,3.5454184E-2,-3.582983E-2],"split_indices":[16302,0,0],"split_type":[0,0,0],"sum_hessian":[2.0777204E0,1.0623853E0,1.015335E0],"tree_param":{"num_deleted":"0","num_feature":"16384","num_nodes":"3","size_leaf_vector":"1"}},{"base_weights":[5.7043124E-4,-3.703518E-2,3.7239864E-2],"categories":[],"categories_nodes":[],"categories_segments":[],"categories_sizes":[],"default_left":[0,0,0],"id":67,"left_children":[1,-1,-1],"loss_changes":[6.2255986E-2,0E0,0E0],"parents":[2147483647,0,0],"right_children":[2,-1,-1],"split_conditions":[-5.708239E-2,-3.703518E-2,3.7239864E-2],"split_indices":[12927,0,0],"split_type":[0,0,0],"sum_hessian":[2.06256E0,1.0298218E0,1.0327384E0],"tree_param":{"num_deleted":"0","num_feature":"16384","num_nodes":"3","size_leaf_vector":"1"}},{"base_weights":[4.6873707E-4,3.48947E-2,-3.493998E-2],"categories":[],"categories_nodes":[],"categories_segments":[],"categories_sizes":[],"default_left":[0,0,0],"id":68,"left_children":[1,-1,-1],"loss_changes":[5.4815102E-2,0E0,0E0],"parents":[2147483647,0,0],"right_children":[2,-1,-1],"split_conditions":[-8.202782E-2,3.48947E-2,-3.493998E-2],"split_indices":[9879,0,0],"split_type":[0,0,0],"sum_hessian":[2.0463893E0,1.0306406E0,1.0157486E0],"tree_param":{"num_deleted":"0","num_feature":"16384","num_nodes":"3","size_leaf_vector":"1"}},{"base_weights":[3.138681E-4,3.4777366E-2,-3.4497682E-2],"categories":[],"categories_nodes":[],"categories_segments":[],"categories_sizes":[],"default_left":[0,0,0],"id":69,"left_children":[1,-1,-1],"loss_changes":[5.3740732E-2,0E0,0E0],"parents":[2147483647,0,0],"right_children":[2,-1,-1],"split_conditions":[-1.1155855E-1,3.4777366E-2,-3.4497682E-2],"split_indices":[14926,0,0],"split_type":[0,0,0],"sum_hessian":[2.0313895E0,1.0116771E0,1.0197123E0],"tree_param":{"num_deleted":"0","num_feature":"16384","num_nodes":"3","size_leaf_vector":"1"}},{"base_weights":[3.135227E-4,-3.494915E-2,3.5331734E-2],"categories":[],"categories_nodes":[],"categories_segments":[],"categories_sizes":[],"default_left":[0,0,0],"id":70,"left_children":[1,-1,-1],"loss_changes":[5.51091E-2,0E0,0E0],"parents":[2147483647,0,0],"right_children":[2,-1,-1],"split_conditions":[-8.516092E-2,-3.494915E-2,3.5331734E-2],"split_indices":[15236,0,0],"split_type":[0,0,0],"sum_hessian":[2.0165868E0,1.0151888E0,1.0013981E0],"tree_param":{"num_deleted":"0","num_feature":"16384","num_nodes":"3","size_leaf_vector":"1"}},{"base_weights":[3.476842E-4,-3.398158E-2,3.4120385E-2],"categories":[],"categories_nodes":[],"categories_segments":[],"categories_sizes":[],"default_left":[0,0,0],"id":71,"left_children":[1,-1,-1],"loss_changes":[5.155985E-2,0E0,0E0],"parents":[2147483647,0,0],"right_children":[2,-1,-1],"split_conditions":[-7.908469E-2,-3.398158E-2,3.4120385E-2],"split_indices":[4628,0,0],"split_type":[0,0,0],"sum_hessian":[2.002171E0,1.000566E0,1.001605E0],"tree_param":{"num_deleted":"0","num_feature":"16384","num_nodes":"3","size_leaf_vector":"1"}},{"base_weights":[2.9081336E-4],"categories":[],"categories_nodes":[],"categories_segments":[],"categories_sizes":[],"default_left":[0],"id":72,"left_children":[-1],"loss_changes":[0E0],"parents":[2147483647],"right_children":[-1],"split_conditions":[8.7244014E-5],"split_indices":[0],"split_type":[0],"sum_hessian":[1.9889537E0],"tree_param":{"num_deleted":"0","num_feature":"16384","num_nodes":"1","size_leaf_vector":"1"}},{"base_weights":[2.3278908E-4],"categories":[],"categories_nodes":[],"categories_segments":[],"categories_sizes":[],"default_left":[0],"id":73,"left_children":[-1],"loss_changes":[0E0],"parents":[2147483647],"right_children":[-1],"split_conditions":[6.983673E-5],"split_indices":[0],"split_type":[0],"sum_hessian":[1.9889543E0],"tree_param":{"num_deleted":"0","num_feature":"16384","num_nodes":"1","size_leaf_vector":"1"}},{"base_weights":[1.8609902E-4],"categories":[],"categories_nodes":[],"categories_segments":[],"categories_sizes":[],"default_left":[0],"id":74,"left_children":[-1],"loss_changes":[0E0],"parents":[2147483647],"right_children":[-1],"split_conditions":[5.5829707E-5],"split_indices":[0],"split_type":[0],"sum_hessian":[1.9889537E0],"tree_param":{"num_deleted":"0","num_feature":"16384","num_nodes":"1","size_leaf_vector":"1"}},{"base_weights":[1.490513E-4],"categories":[],"categories_nodes":[],"categories_segments":[],"categories_sizes":[],"default_left":[0],"id":75,"left_children":[-1],"loss_changes":[0E0],"parents":[2147483647],"right_children":[-1],"split_conditions":[4.471539E-5],"split_indices":[0],"split_type":[0],"sum_hessian":[1.9889543E0],"tree_param":{"num_deleted":"0","num_feature":"16384","num_nodes":"1","size_leaf_vector":"1"}},{"base_weights":[1.1923121E-4],"categories":[],"categories_nodes":[],"categories_segments":[],"categories_sizes":[],"default_left":[0],"id":76,"left_children":[-1],"loss_changes":[0E0],"parents":[2147483647],"right_children":[-1],"split_conditions":[3.5769364E-5],"split_indices":[0],"split_type":[0],"sum_hessian":[1.9889545E0],"tree_param":{"num_deleted":"0","num_feature":"16384","num_nodes":"1","size_leaf_vector":"1"}},{"base_weights":[9.5547795E-5],"categories":[],"categories_nodes":[],"categories_segments":[],"categories_sizes":[],"default_left":[0],"id":77,"left_children":[-1],"loss_changes":[0E0],"parents":[2147483647],"right_children":[-1],"split_conditions":[2.8664339E-5],"split_indices":[0],"split_type":[0],"sum_hessian":[1.9889551E0],"tree_param":{"num_deleted":"0","num_feature":"16384","num_nodes":"1","size_leaf_vector":"1"}},{"base_weights":[7.6248565E-5],"categories":[],"categories_nodes":[],"categories_segments":[],"categories_sizes":[],"default_left":[0],"id":78,"left_children":[-1],"loss_changes":[0E0],"parents":[2147483647],"right_children":[-1],"split_conditions":[2.287457E-5],"split_indices":[0],"split_type":[0],"sum_hessian":[1.9889545E0],"tree_param":{"num_deleted":"0","num_feature":"16384","num_nodes":"1","size_leaf_vector":"1"}},{"base_weights":[6.0869625E-5],"categories":[],"categories_nodes":[],"categories_segments":[],"categories_sizes":[],"default_left":[0],"id":79,"left_children":[-1],"loss_changes":[0E0],"parents":[2147483647],"right_children":[-1],"split_conditions":[1.8260887E-5],"split_indices":[0],"split_type":[0],"sum_hessian":[1.9889543E0],"tree_param":{"num_deleted":"0","num_feature":"16384","num_nodes":"1","size_leaf_vector":"1"}},{"base_weights":[4.8810456E-5],"categories":[],"categories_nodes":[],"categories_segments":[],"categories_sizes":[],"default_left":[0],"id":80,"left_children":[-1],"loss_changes":[0E0],"parents":[2147483647],"right_children":[-1],"split_conditions":[1.4643138E-5],"split_indices":[0],"split_type":[0],"sum_hessian":[1.9889545E0],"tree_param":{"num_deleted":"0","num_feature":"16384","num_nodes":"1","size_leaf_vector":"1"}},{"base_weights":[3.9585553E-5],"categories":[],"categories_nodes":[],"categories_segments":[],"categories_sizes":[],"default_left":[0],"id":81,"left_children":[-1],"loss_changes":[0E0],"parents":[2147483647],"right_children":[-1],"split_conditions":[1.1875666E-5],"split_indices":[0],"split_type":[0],"sum_hessian":[1.9889562E0],"tree_param":{"num_deleted":"0","num_feature":"16384","num_nodes":"1","size_leaf_vector":"1"}},{"base_weights":[3.139459E-5],"categories":[],"categories_nodes":[],"categories_segments":[],"categories_sizes":[],"default_left":[0],"id":82,"left_children":[-1],"loss_changes":[0E0],"parents":[2147483647],"right_children":[-1],"split_conditions":[9.418377E-6],"split_indices":[0],"split_type":[0],"sum_hessian":[1.9889555E0],"tree_param":{"num_deleted":"0","num_feature":"16384","num_nodes":"1","size_leaf_vector":"1"}},{"base_weights":[2.5005658E-5],"categories":[],"categories_nodes":[],"categories_segments":[],"categories_sizes":[],"default_left":[0],"id":83,"left_children":[-1],"loss_changes":[0E0],"parents":[2147483647],"right_children":[-1],"split_conditions":[7.501698E-6],"split_indices":[0],"split_type":[0],"sum_hessian":[1.9889555E0],"tree_param":{"num_deleted":"0","num_feature":"16384","num_nodes":"1","size_leaf_vector":"1"}},{"base_weights":[2.0248712E-5],"categories":[],"categories_nodes":[],"categories_segments":[],"categories_sizes":[],"default_left":[0],"id":84,"left_children":[-1],"loss_changes":[0E0],"parents":[2147483647],"right_children":[-1],"split_conditions":[6.074614E-6],"split_indices":[0],"split_type":[0],"sum_hessian":[1.9889563E0],"tree_param":{"num_deleted":"0","num_feature":"16384","num_nodes":"1","size_leaf_vector":"1"}},{"base_weights":[1.5772017E-5],"categories":[],"categories_nodes":[],"categories_segments":[],"categories_sizes":[],"default_left":[0],"id":85,"left_children":[-1],"loss_changes":[0E0],"parents":[2147483647],"right_children":[-1],"split_conditions":[4.7316053E-6],"split_indices":[0],"split_type":[0],"sum_hessian":[1.9889553E0],"tree_param":{"num_deleted":"0","num_feature":"16384","num_nodes":"1","size_leaf_vector":"1"}},{"base_weights":[1.2788375E-5],"categories":[],"categories_nodes":[],"categories_segments":[],"categories_sizes":[],"default_left":[0],"id":86,"left_children":[-1],"loss_changes":[0E0],"parents":[2147483647],"right_children":[-1],"split_conditions":[3.836513E-6],"split_indices":[0],"split_type":[0],"sum_hessian":[1.9889559E0],"tree_param":{"num_deleted":"0","num_feature":"16384","num_nodes":"1","size_leaf_vector":"1"}},{"base_weights":[1.0082946E-5],"categories":[],"categories_nodes":[],"categories_segments":[],"categories_sizes":[],"default_left":[0],"id":87,"left_children":[-1],"loss_changes":[0E0],"parents":[2147483647],"right_children":[-1],"split_conditions":[3.0248839E-6],"split_indices":[0],"split_type":[0],"sum_hessian":[1.9889554E0],"tree_param":{"num_deleted":"0","num_feature":"16384","num_nodes":"1","size_leaf_vector":"1"}},{"base_weights":[8.155473E-6],"categories":[],"categories_nodes":[],"categories_segments":[],"categories_sizes":[],"default_left":[0],"id":88,"left_children":[-1],"loss_changes":[0E0],"parents":[2147483647],"right_children":[-1],"split_conditions":[2.446642E-6],"split_indices":[0],"split_type":[0],"sum_hessian":[1.9889554E0],"tree_param":{"num_deleted":"0","num_feature":"16384","num_nodes":"1","size_leaf_vector":"1"}},{"base_weights":[6.440748E-6],"categories":[],"categories_nodes":[],"categories_segments":[],"categories_sizes":[],"default_left":[0],"id":89,"left_children":[-1],"loss_changes":[0E0],"parents":[2147483647],"right_children":[-1],"split_conditions":[1.9322244E-6],"split_indices":[0],"split_type":[0],"sum_hessian":[1.988955E0],"tree_param":{"num_deleted":"0","num_feature":"16384","num_nodes":"1","size_leaf_vector":"1"}},{"base_weights":[5.2841647E-6],"categories":[],"categories_nodes":[],"categories_segments":[],"categories_sizes":[],"default_left":[0],"id":90,"left_children":[-1],"loss_changes":[0E0],"parents":[2147483647],"right_children":[-1],"split_conditions":[1.5852495E-6],"split_indices":[0],"split_type":[0],"sum_hessian":[1.9889554E0],"tree_param":{"num_deleted":"0","num_feature":"16384","num_nodes":"1","size_leaf_vector":"1"}},{"base_weights":[4.366399E-6],"categories":[],"categories_nodes":[],"categories_segments":[],"categories_sizes":[],"default_left":[0],"id":91,"left_children":[-1],"loss_changes":[0E0],"parents":[2147483647],"right_children":[-1],"split_conditions":[1.3099198E-6],"split_indices":[0],"split_type":[0],"sum_hessian":[1.9889556E0],"tree_param":{"num_deleted":"0","num_feature":"16384","num_nodes":"1","size_leaf_vector":"1"}},{"base_weights":[3.5933583E-6],"categories":[],"categories_nodes":[],"categories_segments":[],"categories_sizes":[],"default_left":[0],"id":92,"left_children":[-1],"loss_changes":[0E0],"parents":[2147483647],"right_children":[-1],"split_conditions":[1.0780076E-6],"split_indices":[0],"split_type":[0],"sum_hessian":[1.9889561E0],"tree_param":{"num_deleted":"0","num_feature":"16384","num_nodes":"1","size_leaf_vector":"1"}},{"base_weights":[2.9992086E-6],"categories":[],"categories_nodes":[],"categories_segments":[],"categories_sizes":[],"default_left":[0],"id":93,"left_children":[-1],"loss_changes":[0E0],"parents":[2147483647],"right_children":[-1],"split_conditions":[8.997626E-7],"split_indices":[0],"split_type":[0],"sum_hessian":[1.9889563E0],"tree_param":{"num_deleted":"0","num_feature":"16384","num_nodes":"1","size_leaf_vector":"1"}},{"base_weights":[2.243141E-6],"categories":[],"categories_nodes":[],"categories_segments":[],"categories_sizes":[],"default_left":[0],"id":94,"left_children":[-1],"loss_changes":[0E0],"parents":[2147483647],"right_children":[-1],"split_conditions":[6.729423E-7],"split_indices":[0],"split_type":[0],"sum_hessian":[1.988956E0],"tree_param":{"num_deleted":"0","num_feature":"16384","num_nodes":"1","size_leaf_vector":"1"}},{"base_weights":[1.9040164E-6],"categories":[],"categories_nodes":[],"categories_segments":[],"categories_sizes":[],"default_left":[0],"id":95,"left_children":[-1],"loss_changes":[0E0],"parents":[2147483647],"right_children":[-1],"split_conditions":[5.712049E-7],"split_indices":[0],"split_type":[0],"sum_hessian":[1.988956E0],"tree_param":{"num_deleted":"0","num_feature":"16384","num_nodes":"1","size_leaf_vector":"1"}},{"base_weights":[1.6192396E-6],"categories":[],"categories_nodes":[],"categories_segments":[],"categories_sizes":[],"default_left":[0],"id":96,"left_children":[-1],"loss_changes":[0E0],"parents":[2147483647],"right_children":[-1],"split_conditions":[4.857719E-7],"split_indices":[0],"split_type":[0],"sum_hessian":[1.9889561E0],"tree_param":{"num_deleted":"0","num_feature":"16384","num_nodes":"1","size_leaf_vector":"1"}},{"base_weights":[1.155743E-6],"categories":[],"categories_nodes":[],"categories_segments":[],"categories_sizes":[],"default_left":[0],"id":97,"left_children":[-1],"loss_changes":[0E0],"parents":[2147483647],"right_children":[-1],"split_conditions":[3.467229E-7],"split_indices":[0],"split_type":[0],"sum_hessian":[1.9889557E0],"tree_param":{"num_deleted":"0","num_feature":"16384","num_nodes":"1","size_leaf_vector":"1"}},{"base_weights":[9.001435E-7],"categories":[],"categories_nodes":[],"categories_segments":[],"categories_sizes":[],"default_left":[0],"id":98,"left_children":[-1],"loss_changes":[0E0],"parents":[2147483647],"right_children":[-1],"split_conditions":[2.7004307E-7],"split_indices":[0],"split_type":[0],"sum_hessian":[1.9889557E0],"tree_param":{"num_deleted":"0","num_feature":"16384","num_nodes":"1","size_leaf_vector":"1"}},{"base_weights":[6.437358E-7],"categories":[],"categories_nodes":[],"categories_segments":[],"categories_sizes":[],"default_left":[0],"id":99,"left_children":[-1],"loss_changes":[0E0],"parents":[2147483647],"right_children":[-1],"split_conditions":[1.9312075E-7],"split_indices":[0],"split_type":[0],"sum_hessian":[1.9889559E0],"tree_param":{"num_deleted":"0","num_feature":"16384","num_nodes":"1","size_leaf_vector":"1"}}]},"name":"gbtree"},"learner_model_param":{"base_score":"3.6703825E-1","boost_from_average":"1","num_class":"0","num_feature":"16384","num_target":"1"},"objective":{"name":"binary:logistic","reg_loss_param":{"scale_pos_weight":"1"}}},"version":[2,1,0]}